Cufon.registerFont({"w":690,"face":{"font-family":"Eurostile","font-weight":500,"font-stretch":"normal","units-per-em":"1000","panose-1":"2 0 6 3 0 0 0 0 0 0","ascent":"800","descent":"-200","x-height":"6","bbox":"-50 -878 1121 250","underline-thickness":"50","underline-position":"-100","stemh":"64","stemv":"79","unicode-range":"U+0020-U+00FC"},"glyphs":{" ":{"w":345},"!":{"d":"182,-102r0,102r-89,0r0,-102r89,0xm182,-750r-8,543r-73,0r-8,-543r89,0","w":270},"\"":{"d":"51,-750r94,0r0,111r-27,135r-40,0r-27,-135r0,-111xm210,-750r94,0r0,111r-27,135r-40,0r-27,-135r0,-111","w":355},"#":{"d":"273,-750r77,0r-36,204r124,0r35,-204r79,0r-35,204r92,0r0,80r-107,0r-27,163r101,0r0,80r-117,0r-38,223r-76,0r37,-223r-123,0r-40,223r-75,0r37,-223r-100,0r0,-80r115,0r27,-163r-105,0r0,-80r119,0xm301,-466r-27,163r123,0r27,-163r-123,0"},"$":{"d":"313,-416r0,-264v-133,0,-192,0,-192,129v0,138,74,136,192,135xm378,-346r0,276v148,0,199,-6,199,-137v0,-143,-64,-134,-199,-139xm378,-680r0,264v159,3,284,0,284,198v0,191,-86,218,-284,218r0,85r-65,0r0,-85v-195,6,-292,-24,-283,-233r85,0v0,133,-9,165,198,163r0,-276v-160,-1,-277,-5,-277,-192v0,-195,96,-212,277,-212r0,-70r65,0r0,70v190,-5,273,19,266,210r-85,0v3,-124,-18,-144,-181,-140"},"%":{"d":"862,-240r0,110v-2,120,-49,136,-165,136v-117,0,-157,-15,-160,-135r0,-110v3,-120,43,-136,159,-136v117,0,164,15,166,135xm731,-750r-509,756r-67,0r506,-756r70,0xm802,-132r0,-110v0,-77,-18,-78,-106,-78v-82,0,-99,1,-99,78r0,110v0,83,17,83,99,83v83,0,106,0,106,-83xm347,-621r0,110v-2,120,-49,136,-165,136v-117,0,-157,-15,-160,-135r0,-110v3,-120,43,-136,159,-136v117,0,164,15,166,135xm287,-513r0,-110v0,-77,-18,-78,-106,-78v-82,0,-99,1,-99,78r0,110v0,83,17,83,99,83v83,0,106,0,106,-83","w":884},"&":{"d":"563,-144r-293,-241v-110,25,-121,40,-121,159v0,146,23,157,200,157v81,0,196,7,214,-75xm740,0r-111,-92v-43,98,-160,98,-280,98v-166,0,-285,1,-285,-233v0,-182,57,-177,153,-204v-49,-41,-68,-64,-68,-148v0,-148,83,-177,230,-177v136,0,212,31,212,189r0,47r-85,0v0,-112,7,-161,-127,-161v-81,0,-145,3,-145,102v0,53,13,72,52,105r292,245v3,-34,4,-68,1,-102r78,0v3,57,4,111,-7,164r136,108","w":788},"(":{"d":"250,-756r0,75v-104,-16,-110,90,-110,160r0,436v-2,69,5,177,110,160r0,75v-164,12,-195,-100,-195,-235r0,-436v-3,-135,30,-247,195,-235","w":312},")":{"d":"62,-681r0,-75v164,-12,195,100,195,235r0,436v3,135,-30,247,-195,235r0,-75v104,16,110,-90,110,-160r0,-436v2,-69,-5,-177,-110,-160","w":312},"*":{"d":"545,-589r-154,56r92,131r-44,33r-93,-135r-100,135r-44,-33r96,-131r-153,-58r19,-54r154,57r0,-162r55,0r0,162r153,-57"},"+":{"d":"255,-525r75,0r0,204r204,0r0,75r-204,0r0,205r-75,0r0,-205r-205,0r0,-75r205,0r0,-204","w":584},",":{"d":"159,0r-38,0r0,-102r89,0v-7,102,37,229,-100,214r0,-45v44,2,51,-22,49,-67","w":345},"-":{"d":"0,-311r261,0r0,75r-261,0r0,-75","w":261},".":{"d":"199,-102r0,102r-89,0r0,-102r89,0","w":345},"\/":{"d":"699,-750r-580,863r-91,0r578,-863r93,0","w":727},"0":{"d":"344,-681v-184,0,-233,1,-233,196r0,220v0,195,49,196,233,196v186,0,235,-1,235,-196r0,-220v0,-195,-49,-196,-235,-196xm346,6v-234,0,-315,-31,-320,-271r0,-220v5,-240,86,-271,318,-271v234,0,315,31,320,271r0,220v-5,240,-86,271,-318,271"},"1":{"d":"448,-750r0,750r-85,0r0,-685r-192,211r-53,-51r207,-225r123,0"},"2":{"d":"612,-75r0,75r-540,0r0,-127v0,-195,83,-208,263,-227v159,-16,194,-9,194,-165v0,-155,-34,-162,-176,-162v-180,0,-199,11,-196,149r0,39r-85,0v-1,-192,1,-264,281,-263v199,0,261,47,261,237v0,199,-70,227,-259,240v-191,13,-204,48,-198,204r455,0"},"3":{"d":"275,-347r0,-75r89,0v107,-2,152,3,152,-124v0,-124,-18,-135,-195,-135v-159,0,-168,28,-168,161r-85,0r0,-32v0,-192,90,-204,264,-204v160,0,269,0,269,195v0,96,-14,167,-124,175r0,2v114,9,139,62,139,172v0,226,-112,218,-292,218v-172,0,-269,-24,-266,-199r0,-50r85,0r0,50v0,117,20,121,181,124v182,3,207,-3,207,-152v0,-164,-123,-119,-256,-126"},"4":{"d":"537,-750r0,504r109,0r0,75r-109,0r0,171r-85,0r0,-171r-422,0r0,-101r377,-478r130,0xm452,-246r0,-449r-2,0r-350,449r352,0"},"5":{"d":"166,-675r0,224r2,0v36,-60,138,-62,202,-62v234,0,252,109,252,253v0,235,-49,266,-276,266v-210,0,-272,-31,-278,-221r86,0v-7,132,46,146,192,146v176,0,191,-27,191,-191v0,-161,-30,-178,-191,-178v-61,0,-166,-12,-180,68r-85,0r0,-380r510,0r0,75r-425,0"},"6":{"d":"363,-389v-165,0,-211,9,-211,130v0,163,15,190,193,190v186,0,193,-25,193,-160v0,-142,-15,-160,-175,-160xm67,-259r0,-297v2,-178,107,-200,282,-200v123,0,257,-1,257,172r0,24r-85,0v7,-114,-50,-121,-172,-121v-137,0,-197,-2,-197,125v0,52,-4,113,2,161v19,-47,77,-69,191,-69v208,0,278,24,278,235v0,202,-65,235,-278,235v-210,0,-278,-32,-278,-265"},"7":{"d":"610,-750r0,107r-364,643r-100,0r394,-680r-477,0r0,-70r547,0"},"8":{"d":"195,-389r0,-2v-102,-18,-120,-60,-120,-171v0,-186,85,-194,270,-194v179,0,271,6,271,194v0,97,-13,152,-119,173v102,16,128,61,128,182v0,191,-62,213,-280,213v-179,0,-280,2,-280,-213v0,-108,10,-163,130,-182xm160,-562v0,114,12,138,185,138v171,0,186,-20,186,-138v0,-103,-13,-119,-186,-119v-172,0,-185,12,-185,119xm150,-207v0,121,10,135,195,138v167,3,195,-23,195,-138v0,-125,-22,-142,-195,-142v-167,0,-195,10,-195,142"},"9":{"d":"349,-366v173,0,193,-10,193,-152v0,-160,-43,-163,-193,-163v-172,0,-192,5,-192,163v0,142,27,152,192,152xm349,6v-188,0,-297,-12,-286,-197r85,0v-4,114,19,121,201,122v158,0,193,-6,193,-162v0,-41,4,-90,-2,-127v-33,73,-161,67,-191,67v-208,0,-277,-27,-277,-227v0,-206,60,-238,277,-238v212,0,278,33,278,238r0,287v0,189,-38,237,-278,237"},":":{"d":"199,-102r0,102r-89,0r0,-102r89,0xm199,-525r0,102r-89,0r0,-102r89,0","w":345},";":{"d":"159,0r-38,0r0,-102r89,0v-7,102,37,229,-100,214r0,-45v44,2,51,-22,49,-67xm210,-525r0,102r-89,0r0,-102r89,0","w":345},"<":{"d":"534,-484r0,80r-395,162r395,162r0,80r-484,-207r0,-70","w":584},"=":{"d":"50,-399r484,0r0,75r-484,0r0,-75xm50,-244r484,0r0,75r-484,0r0,-75","w":584},">":{"d":"534,-277r0,70r-484,207r0,-80r391,-162r-391,-162r0,-80","w":584},"?":{"d":"299,-214r-85,0v-3,-118,17,-140,141,-187v83,-31,93,-40,93,-155v0,-112,-27,-125,-150,-125v-125,0,-161,6,-161,125r0,43r-80,0r0,-43v4,-183,79,-200,241,-200v164,0,230,37,230,200v0,121,-10,180,-131,222v-96,32,-100,37,-98,120xm301,-102r0,102r-89,0r0,-102r89,0","w":584},"@":{"d":"644,-550r71,0r-89,280v-9,29,10,44,54,44v94,0,140,-132,140,-224v0,-149,-167,-242,-310,-241v-178,1,-341,168,-335,347v5,169,153,285,318,285v64,0,123,-16,168,-30r25,58v-267,109,-592,-33,-586,-321v4,-217,196,-404,409,-404v174,0,381,107,381,299v0,134,-85,291,-233,291v-44,0,-91,-14,-98,-65v-34,34,-66,63,-119,63v-92,0,-148,-81,-144,-166v6,-115,95,-228,216,-236v49,-3,98,35,114,77xm594,-445v-4,-42,-37,-65,-77,-65v-88,0,-143,101,-146,179v-2,49,35,107,90,107v88,0,139,-153,133,-221","w":990},"A":{"d":"532,-159r-379,0r-58,159r-89,0r273,-750r120,0r280,750r-88,0xm508,-229r-167,-451r-165,451r332,0","w":685},"B":{"d":"146,-348r0,273r269,0v92,0,137,-11,137,-126v0,-99,-15,-147,-127,-147r-279,0xm460,0r-399,0r0,-750r380,0v141,0,174,67,174,198v0,79,-16,132,-94,158r0,2v100,18,116,90,116,183v0,135,-50,209,-177,209xm146,-675r0,252r247,0v102,0,137,-23,137,-140v0,-101,-39,-112,-128,-112r-256,0","w":694},"C":{"d":"643,-185v3,218,-184,191,-380,191v-137,0,-218,-86,-218,-236r0,-290v-1,-239,169,-236,383,-236v166,0,209,80,205,240r-85,0v2,-113,-13,-169,-132,-165r-48,0v-176,0,-238,21,-238,158r0,206v0,171,7,248,149,248r101,0v136,0,178,-19,178,-126r0,-60r85,0r0,70","w":665},"D":{"d":"64,0r0,-750r365,0v91,0,257,12,257,289r0,179v0,74,-12,282,-237,282r-385,0xm149,-75r280,0v223,8,172,-223,172,-419v0,-42,-15,-181,-158,-181r-294,0r0,600","w":734},"E":{"d":"126,-675r0,255r380,0r0,70r-380,0r0,275r397,0r0,75r-482,0r0,-750r482,0r0,75r-397,0","w":560},"F":{"d":"150,-675r0,262r365,0r0,70r-365,0r0,343r-85,0r0,-750r460,0r0,75r-375,0","w":549},"G":{"d":"339,-375r324,0r0,163v8,209,-129,218,-331,218v-200,0,-288,-37,-288,-269r0,-232v0,-203,92,-261,220,-261r197,0v113,0,200,46,200,167r0,58r-85,0v5,-114,-12,-153,-156,-150r-105,0v-162,0,-186,32,-186,196r0,241v0,143,48,175,188,175r80,0v149,0,181,-18,181,-138r0,-93r-239,0r0,-75","w":696},"H":{"d":"680,-750r0,750r-85,0r0,-345r-439,0r0,345r-85,0r0,-750r85,0r0,330r439,0r0,-330r85,0","w":750},"I":{"d":"157,-750r0,750r-85,0r0,-750r85,0","w":228},"J":{"d":"409,-750r84,0r0,569v0,150,-94,187,-228,187v-130,0,-236,-21,-236,-169r0,-110r85,0r0,85v0,93,16,119,136,119v77,0,158,0,158,-100","w":565},"K":{"d":"157,-750r0,328r74,0r306,-328r111,0r-343,363r384,387r-115,0r-343,-347r-74,0r0,347r-85,0r0,-750r85,0","w":678},"L":{"d":"160,-750r0,675r382,0r0,75r-467,0r0,-750r85,0","w":558},"M":{"d":"808,-686r-283,686r-84,0r-284,-686r-2,0r0,686r-85,0r0,-750r147,0r265,642r266,-642r147,0r0,750r-85,0r0,-686r-2,0","w":965},"N":{"d":"715,-750r0,750r-139,0r-421,-680r-2,0r0,680r-85,0r0,-750r140,0r420,685r2,0r0,-685r85,0","w":783},"O":{"d":"285,-756r101,0v187,2,244,64,244,252r0,267v0,177,-64,243,-244,243r-101,0v-180,0,-244,-66,-244,-243r0,-267v0,-188,57,-250,244,-252xm386,-681r-101,0v-126,0,-159,31,-159,177r0,267v-8,195,105,168,260,168v110,0,159,-19,159,-168r0,-267v0,-146,-33,-177,-159,-177","w":671},"P":{"d":"59,0r0,-750r382,0v145,0,179,98,179,227v0,67,-1,231,-183,231r-293,0r0,292r-85,0xm404,-675r-260,0r0,308r220,0v113,0,171,1,171,-145v0,-144,-26,-163,-131,-163","w":661},"Q":{"d":"734,-92r-35,58r-56,-38v-67,86,-192,78,-334,78v-213,0,-259,-85,-259,-287r0,-212v0,-185,71,-257,259,-263r117,0v192,0,261,68,261,263v0,119,12,268,-16,359xm380,-326r216,142v15,-102,6,-226,6,-338v0,-92,-24,-159,-159,-159r-143,0v-127,0,-165,45,-165,171r0,244v0,166,38,197,165,197v106,0,225,19,275,-47r-234,-152","w":737},"R":{"d":"154,-300r0,300r-85,0r0,-750r346,0v162,0,233,45,233,216v0,108,-17,180,-131,200v84,6,121,54,121,135r0,199r-85,0r0,-159v0,-95,-23,-141,-126,-141r-273,0xm154,-375r262,0v131,-4,147,-44,147,-168v0,-96,-13,-132,-147,-132r-262,0r0,300","w":701},"S":{"d":"311,-346v-148,-12,-275,6,-275,-192v0,-200,92,-218,277,-218v162,0,279,7,270,211r-85,0v-4,-131,-29,-136,-188,-136v-166,0,-189,21,-189,125v0,143,68,129,208,135v178,8,268,5,268,208v0,212,-100,219,-289,219v-191,0,-290,-23,-274,-240r85,0v-2,165,30,165,189,165v160,0,204,0,204,-147v0,-143,-64,-119,-201,-130","w":629},"T":{"d":"332,-675r0,675r-85,0r0,-675r-243,0r0,-75r571,0r0,75r-243,0","w":579},"U":{"d":"581,-750r85,0r0,540v0,201,-120,216,-297,216v-164,0,-297,-4,-297,-216r0,-540r85,0r0,540v0,122,29,141,212,141v151,0,212,-1,212,-141r0,-540","w":737},"V":{"d":"558,-750r91,0r-266,750r-121,0r-268,-750r91,0r236,685r3,0","w":643},"W":{"d":"1121,-750r-236,750r-129,0r-196,-675r-2,0r-199,675r-127,0r-230,-750r87,0r204,685r2,0r202,-685r125,0r200,685r2,0r209,-685r88,0","w":1123},"X":{"d":"641,-750r-240,362r258,388r-100,0r-228,-345r-233,345r-104,0r268,-388r-246,-362r102,0r213,321r210,-321r100,0","w":653},"Y":{"d":"638,-750r-284,437r0,313r-85,0r0,-313r-275,-437r99,0r222,351r222,-351r101,0","w":632},"Z":{"d":"601,-750r0,79r-472,596r482,0r0,75r-585,0r0,-74r471,-601r-457,0r0,-75r561,0","w":637},"[":{"d":"55,-756r194,0r0,75r-109,0r0,756r109,0r0,75r-194,0r0,-906","w":311},"\\":{"d":"237,113r-287,-863r93,0r285,863r-91,0","w":278},"]":{"d":"256,150r-194,0r0,-75r109,0r0,-756r-109,0r0,-75r194,0r0,906","w":311},"^":{"d":"257,-750r70,0r207,489r-80,0r-162,-391r-162,391r-80,0","w":584},"_":{"d":"500,75r0,50r-500,0r0,-50r500,0","w":500},"a":{"d":"263,-58v79,0,159,-2,159,-98v0,-99,-59,-98,-159,-98v-94,0,-132,6,-132,91v0,100,41,105,132,105xm503,0r-79,0v-1,-18,3,-42,-2,-56v-30,60,-107,62,-173,62v-118,0,-200,-22,-200,-159v0,-145,75,-165,205,-165v52,0,154,5,165,53r5,0r0,-97v0,-96,-51,-105,-140,-105v-69,0,-148,3,-137,90r-82,0v-5,-141,89,-154,210,-154v132,0,228,13,228,173r0,358","w":570},"b":{"d":"441,-262v0,-172,-19,-205,-145,-205v-138,0,-147,55,-147,205v0,170,31,204,147,204v140,0,145,-60,145,-204xm68,0r0,-750r79,0r0,293r2,0v25,-67,108,-74,169,-74v181,0,205,105,205,269v0,171,-23,268,-205,268v-71,0,-140,-13,-169,-70v-6,16,0,44,-2,64r-79,0","w":574},"c":{"d":"426,-190r79,0r0,29v0,148,-98,167,-223,167v-218,0,-233,-84,-233,-279v0,-171,30,-258,220,-258v132,0,233,20,227,177r-79,0v5,-103,-45,-113,-143,-113v-140,0,-143,48,-143,216v0,148,6,193,160,193v111,0,140,-24,135,-132","w":546},"d":{"d":"280,-58v123,0,146,-42,146,-204v0,-144,-17,-205,-146,-205v-121,0,-149,21,-149,205v0,182,36,204,149,204xm426,0v-2,-22,3,-50,-2,-68v-31,63,-98,74,-169,74v-187,0,-206,-108,-206,-268v0,-158,18,-269,206,-269v58,0,146,7,169,71r2,0r0,-290r79,0r0,750r-79,0","w":574},"e":{"d":"431,-159r81,0v9,150,-100,165,-224,165v-205,0,-236,-68,-236,-268v0,-218,48,-269,236,-269v170,0,224,39,224,233r0,53r-378,0v0,166,12,187,154,187v118,1,147,-10,143,-101xm134,-309r296,0v-4,-149,-22,-158,-142,-158v-143,0,-148,37,-154,158","w":565},"f":{"d":"167,-525r139,0r0,64r-139,0r0,461r-79,0r0,-461r-80,0r0,-64r80,0r0,-63v-9,-148,74,-177,218,-166r0,64v-16,-1,-33,-2,-49,-2v-110,0,-87,76,-90,167","w":302},"g":{"d":"277,-58v152,0,152,-87,152,-204v0,-146,-10,-205,-152,-205v-146,0,-144,67,-144,205v0,126,-9,204,144,204xm508,-525r0,587v0,140,-104,171,-231,171v-122,0,-218,-19,-210,-171r79,0v0,101,48,107,131,107v94,0,152,-10,152,-113v0,-39,4,-86,-2,-121v-22,64,-107,71,-169,71v-170,0,-207,-88,-207,-268v0,-175,27,-269,207,-269v73,0,138,10,169,73v6,-17,0,-46,2,-67r79,0","w":573},"h":{"d":"148,-750r0,289r2,0v25,-63,102,-70,162,-70v135,0,198,36,198,182r0,349r-79,0r0,-355v0,-96,-37,-112,-126,-112v-129,0,-157,40,-157,161r0,306r-79,0r0,-750r79,0","w":580},"i":{"d":"147,-525r0,525r-79,0r0,-525r79,0xm147,-750r0,87r-79,0r0,-87r79,0","w":215},"j":{"d":"147,-525r0,588v-3,81,-15,146,-113,146v-13,0,-26,-2,-39,-5r0,-61v73,11,73,-50,73,-106r0,-562r79,0xm147,-750r0,87r-79,0r0,-87r79,0","w":209},"k":{"d":"147,-750r0,434r32,0r189,-209r97,0r-225,241r266,284r-104,0r-223,-252r-32,0r0,252r-79,0r0,-750r79,0","w":487},"l":{"d":"147,-750r0,750r-79,0r0,-750r79,0","w":214},"m":{"d":"145,-525v2,26,-4,59,2,81v28,-68,108,-87,175,-87v63,0,144,18,162,87v35,-70,116,-87,187,-87v135,0,182,55,182,185r0,346r-79,0r0,-338v0,-89,-13,-129,-115,-129v-112,0,-160,32,-160,145r0,322r-79,0r0,-352v-3,-70,-3,-115,-117,-115v-104,0,-158,44,-158,151r0,316r-79,0r0,-525r79,0","w":919},"n":{"d":"148,-525v2,20,-4,48,2,64v25,-63,102,-70,162,-70v135,0,198,36,198,182r0,349r-79,0r0,-355v0,-96,-37,-112,-126,-112v-129,0,-157,40,-157,161r0,306r-79,0r0,-525r79,0","w":580},"o":{"d":"52,-262v0,-222,38,-269,233,-269v195,0,233,47,233,269v0,221,-38,268,-233,268v-195,0,-233,-47,-233,-268xm134,-262v0,182,10,204,151,204v141,0,151,-22,151,-204v0,-183,-10,-205,-151,-205v-141,0,-151,22,-151,205","w":570},"p":{"d":"294,-467v-149,0,-149,66,-149,205v0,124,8,204,149,204v122,0,145,-34,145,-204v0,-157,-11,-205,-145,-205xm145,-525v2,21,-3,49,2,66v32,-60,103,-72,169,-72v191,0,205,112,205,269v0,208,-51,268,-205,268v-62,0,-138,-11,-171,-68r0,289r-79,0r0,-752r79,0","w":573},"q":{"d":"284,-58v134,0,143,-68,143,-204v0,-147,-5,-205,-155,-205v-106,0,-138,23,-138,205v0,147,3,204,150,204xm508,-525r0,752r-79,0r0,-287r-2,0v-26,60,-104,66,-154,66v-159,0,-221,-42,-221,-268v0,-172,22,-269,221,-269v62,0,125,15,154,71v6,-17,0,-45,2,-65r79,0","w":575},"r":{"d":"58,-525r77,0v0,22,-7,49,-2,67v27,-58,90,-73,149,-73v115,-1,154,67,146,186r-75,0v4,-79,-7,-122,-88,-122v-98,0,-128,47,-128,140r0,327r-79,0r0,-525","w":442},"s":{"d":"279,-531v99,0,217,10,205,143r-82,0v6,-72,-29,-73,-123,-73v-99,0,-147,-1,-147,64v0,94,26,87,108,91v135,8,258,-13,258,158v0,148,-102,154,-219,154v-114,0,-233,-6,-233,-123r0,-49r82,0v-4,94,6,102,151,102v54,0,137,12,137,-81v0,-98,-41,-80,-137,-86v-114,-8,-229,4,-229,-145v0,-152,87,-155,229,-155","w":537},"t":{"d":"346,-525r0,64r-203,0r0,333v1,57,16,70,74,70v91,0,71,-59,74,-128r75,0v7,124,-28,192,-151,192v-123,0,-151,-35,-151,-158r0,-309r-70,0r0,-64r70,0r0,-127r79,0r0,127r203,0","w":366},"u":{"d":"420,0v-2,-22,4,-52,-2,-70v-28,64,-95,76,-164,76v-139,0,-188,-56,-188,-194r0,-337r79,0r0,337v0,85,6,130,108,130v111,0,168,-18,168,-143r0,-324r79,0r0,525r-80,0","w":570},"v":{"d":"457,-525r-176,525r-111,0r-174,-525r80,0r149,465r2,0r144,-465r86,0","w":453},"w":{"d":"751,-525r-147,525r-115,0r-112,-470r-2,0r-113,470r-116,0r-142,-525r81,0r119,470r2,0r115,-470r113,0r114,470r2,0r119,-470r82,0","w":754},"x":{"d":"438,-525r-167,251r187,274r-95,0r-136,-212r-136,212r-95,0r190,-274r-170,-251r89,0r122,192r119,-192r92,0","w":454},"y":{"d":"441,-525r-151,562v-26,109,-69,219,-213,191r0,-61v104,26,119,-99,137,-167r-28,0r-190,-525r81,0r162,467r2,0r118,-467r82,0","w":437},"z":{"d":"430,-525r0,73r-313,388r313,0r0,64r-405,0r0,-73r313,-388r-287,0r0,-64r379,0","w":454},"{":{"d":"48,-266r0,-75v117,-8,78,-180,78,-296v0,-71,55,-119,82,-119r83,0r0,75r-44,0v-29,0,-36,22,-36,61r0,163v0,104,-63,148,-72,154v9,7,72,50,72,154r0,162v0,39,7,62,36,62r44,0r0,75r-83,0v-27,0,-82,-47,-82,-119v0,-117,38,-287,-78,-297","w":334},"|":{"d":"168,-750r0,1000r-75,0r0,-1000r75,0","w":260},"}":{"d":"286,-340r0,75v-117,8,-78,180,-78,296v0,71,-55,119,-82,119r-83,0r0,-75r44,0v29,0,36,-22,36,-61r0,-163v0,-104,63,-148,72,-154v-9,-7,-72,-50,-72,-154r0,-162v0,-39,-7,-62,-36,-62r-44,0r0,-75r83,0v27,0,82,47,82,119v0,117,-38,287,78,297","w":334},"~":{"d":"120,-215r-70,0v3,-72,27,-156,110,-164v31,-2,57,8,67,14r146,88v16,9,33,13,47,13v38,0,48,-46,44,-85r70,0v6,68,-38,161,-116,161v-80,0,-149,-72,-210,-104v-50,-43,-91,7,-88,77","w":584},"'":{"d":"49,-750r94,0r0,111r-27,135r-40,0r-27,-135r0,-111","w":191},"`":{"d":"115,-743r148,113r-26,41r-162,-100","w":338},"\u00f3":{"d":"52,-262v0,-222,38,-269,233,-269v195,0,233,47,233,269v0,221,-38,268,-233,268v-195,0,-233,-47,-233,-268xm134,-262v0,182,10,204,151,204v141,0,151,-22,151,-204v0,-183,-10,-205,-151,-205v-141,0,-151,22,-151,205xm340,-743r39,54r-161,100r-27,-41","w":570},"\u00d6":{"d":"285,-756r101,0v187,2,244,64,244,252r0,267v0,177,-64,243,-244,243r-101,0v-180,0,-244,-66,-244,-243r0,-267v0,-188,57,-250,244,-252xm386,-681r-101,0v-126,0,-159,31,-159,177r0,267v-8,195,105,168,260,168v110,0,159,-19,159,-168r0,-267v0,-146,-33,-177,-159,-177xm280,-878r0,74r-88,0r0,-74r88,0xm480,-878r0,74r-88,0r0,-74r88,0","w":671},"\u00f6":{"d":"52,-262v0,-222,38,-269,233,-269v195,0,233,47,233,269v0,221,-38,268,-233,268v-195,0,-233,-47,-233,-268xm134,-262v0,182,10,204,151,204v141,0,151,-22,151,-204v0,-183,-10,-205,-151,-205v-141,0,-151,22,-151,205xm229,-653r0,74r-88,0r0,-74r88,0xm429,-653r0,74r-88,0r0,-74r88,0","w":570},"\u00e9":{"d":"431,-159r81,0v9,150,-100,165,-224,165v-205,0,-236,-68,-236,-268v0,-218,48,-269,236,-269v170,0,224,39,224,233r0,53r-378,0v0,166,12,187,154,187v118,1,147,-10,143,-101xm134,-309r296,0v-4,-149,-22,-158,-142,-158v-143,0,-148,37,-154,158xm338,-743r39,54r-161,100r-27,-41","w":565},"\u00f4":{"d":"52,-262v0,-222,38,-269,233,-269v195,0,233,47,233,269v0,221,-38,268,-233,268v-195,0,-233,-47,-233,-268xm134,-262v0,182,10,204,151,204v141,0,151,-22,151,-204v0,-183,-10,-205,-151,-205v-141,0,-151,22,-151,205xm287,-736r173,108r-24,42r-149,-76r-155,76r-21,-42","w":570},"\u00c4":{"d":"532,-159r-379,0r-58,159r-89,0r273,-750r120,0r280,750r-88,0xm508,-229r-167,-451r-165,451r332,0xm287,-878r0,74r-88,0r0,-74r88,0xm487,-878r0,74r-88,0r0,-74r88,0","w":685},"\u00f2":{"d":"52,-262v0,-222,38,-269,233,-269v195,0,233,47,233,269v0,221,-38,268,-233,268v-195,0,-233,-47,-233,-268xm134,-262v0,182,10,204,151,204v141,0,151,-22,151,-204v0,-183,-10,-205,-151,-205v-141,0,-151,22,-151,205xm211,-743r148,113r-26,41r-162,-100","w":570},"\u00fc":{"d":"420,0v-2,-22,4,-52,-2,-70v-28,64,-95,76,-164,76v-139,0,-188,-56,-188,-194r0,-337r79,0r0,337v0,85,6,130,108,130v111,0,168,-18,168,-143r0,-324r79,0r0,525r-80,0xm229,-653r0,74r-88,0r0,-74r88,0xm429,-653r0,74r-88,0r0,-74r88,0","w":570},"\u00e1":{"d":"263,-58v79,0,159,-2,159,-98v0,-99,-59,-98,-159,-98v-94,0,-132,6,-132,91v0,100,41,105,132,105xm503,0r-79,0v-1,-18,3,-42,-2,-56v-30,60,-107,62,-173,62v-118,0,-200,-22,-200,-159v0,-145,75,-165,205,-165v52,0,154,5,165,53r5,0r0,-97v0,-96,-51,-105,-140,-105v-69,0,-148,3,-137,90r-82,0v-5,-141,89,-154,210,-154v132,0,228,13,228,173r0,358xm340,-743r39,54r-161,100r-27,-41","w":570},"\u00e4":{"d":"263,-58v79,0,159,-2,159,-98v0,-99,-59,-98,-159,-98v-94,0,-132,6,-132,91v0,100,41,105,132,105xm503,0r-79,0v-1,-18,3,-42,-2,-56v-30,60,-107,62,-173,62v-118,0,-200,-22,-200,-159v0,-145,75,-165,205,-165v52,0,154,5,165,53r5,0r0,-97v0,-96,-51,-105,-140,-105v-69,0,-148,3,-137,90r-82,0v-5,-141,89,-154,210,-154v132,0,228,13,228,173r0,358xm229,-653r0,74r-88,0r0,-74r88,0xm429,-653r0,74r-88,0r0,-74r88,0","w":570},"\u00e0":{"d":"263,-58v79,0,159,-2,159,-98v0,-99,-59,-98,-159,-98v-94,0,-132,6,-132,91v0,100,41,105,132,105xm503,0r-79,0v-1,-18,3,-42,-2,-56v-30,60,-107,62,-173,62v-118,0,-200,-22,-200,-159v0,-145,75,-165,205,-165v52,0,154,5,165,53r5,0r0,-97v0,-96,-51,-105,-140,-105v-69,0,-148,3,-137,90r-82,0v-5,-141,89,-154,210,-154v132,0,228,13,228,173r0,358xm211,-743r148,113r-26,41r-162,-100","w":570},"\u00e8":{"d":"431,-159r81,0v9,150,-100,165,-224,165v-205,0,-236,-68,-236,-268v0,-218,48,-269,236,-269v170,0,224,39,224,233r0,53r-378,0v0,166,12,187,154,187v118,1,147,-10,143,-101xm134,-309r296,0v-4,-149,-22,-158,-142,-158v-143,0,-148,37,-154,158xm209,-743r148,113r-26,41r-162,-100","w":565},"\u00dc":{"d":"581,-750r85,0r0,540v0,201,-120,216,-297,216v-164,0,-297,-4,-297,-216r0,-540r85,0r0,540v0,122,29,141,212,141v151,0,212,-1,212,-141r0,-540xm313,-878r0,74r-88,0r0,-74r88,0xm513,-878r0,74r-88,0r0,-74r88,0","w":737},"\u00ea":{"d":"431,-159r81,0v9,150,-100,165,-224,165v-205,0,-236,-68,-236,-268v0,-218,48,-269,236,-269v170,0,224,39,224,233r0,53r-378,0v0,166,12,187,154,187v118,1,147,-10,143,-101xm134,-309r296,0v-4,-149,-22,-158,-142,-158v-143,0,-148,37,-154,158xm284,-736r173,108r-24,42r-149,-76r-155,76r-21,-42","w":565},"\u00a0":{"w":345}}});
